{
    "client": {
        "id": 1
    },
    "path": "clienConfig.json", 
    "connection": {
        "password": "federated123",
        "port": 9000,
        "server_ip": "127.0.0.1"
    },
    "model": {
        "architecture": {
            "layers": [
                {
                    "output_dim": [
                        8,
                        8,
                        1
                    ],
                    "type": 1
                },
                {
                    "input_dim": [
                        8,
                        8,
                        1
                    ],
                    "kernel_size": 3,
                    "output_dim": [
                        8,
                        8,
                        4
                    ],
                    "padding": 1,
                    "stride": 1,
                    "type": 2
                },
                {
                    "activation": 2,
                    "type": 8
                },
                {
                    "input_dim": [
                        8,
                        8,
                        4
                    ],
                    "out_features": 256,
                    "type": 4
                },
                {
                    "in_features": 256,
                    "out_features": 10,
                    "type": 5
                }
            ]
        },
        "id": 1,
        "weights": [
            0.028031913563609123,
            0.011803246103227139,
            -0.0759575143456459,
            -0.06942668557167053,
            -0.015463963150978088,
            -0.05566855147480965,
            -0.08337923884391785,
            -0.08866449445486069,
            -0.0322992205619812,
            -0.10234886407852173,
            -0.004796571563929319,
            -0.001959096407517791,
            0.05124258995056152,
            -0.030536789447069168,
            0.04314868897199631,
            0.006756457034498453,
            0.004342571832239628,
            -0.04435030743479729,
            0.0001124859118135646,
            0.022639187052845955,
            0.018810393288731575,
            0.003160858992487192,
            0.010165936313569546,
            -0.05329369381070137,
            0.0021928800269961357,
            0.0050111133605241776,
            0.015055698342621326,
            0.049675002694129944,
            -0.00924051646143198,
            -0.05404878407716751,
            -0.04284432902932167,
            -0.06330546736717224,
            0.04727555811405182,
            0.058479178696870804,
            0.02433147095143795,
            0.013683614321053028,
            -0.04132450744509697,
            -0.03823825344443321,
            -0.01036060880869627,
            -0.029713839292526245,
            0.02423938363790512,
            -0.041415587067604065,
            -0.021110817790031433,
            0.021726908162236214,
            0.07837942987680435,
            0.06291399896144867,
            -0.014043468050658703,
            -0.04357287287712097,
            0.003834688803181052,
            -0.02272954396903515,
            0.020815111696720123,
            0.022216200828552246,
            0.0011343929218128324,
            -0.0020466435234993696,
            -0.0018804299179464579,
            -0.01954442448914051,
            -0.07109541445970535,
            -0.0034575951285660267,
            -0.08064107596874237,
            -0.022252043709158897,
            0.01772075518965721,
            0.011163956485688686,
            0.023547811433672905,
            0.10196767002344131,
            -0.06810030341148376,
            0.005309015046805143,
            -0.007958514615893364,
            0.005525494460016489,
            -0.02537999488413334,
            0.059274621307849884,
            -0.007479480933398008,
            -0.01934044249355793,
            0.07338612526655197,
            0.12397661060094833,
            -0.04761892184615135,
            -0.013958114199340343,
            -0.04000556841492653,
            0.05697754770517349,
            -0.014572014100849628,
            0.04021546617150307,
            -0.018741311505436897,
            -0.03981475532054901,
            -0.008008204400539398,
            -0.07237576693296432,
            -0.017111817374825478,
            0.06503807753324509,
            -0.0017163448501378298,
            0.02977321855723858,
            0.019296696409583092,
            -0.0491037555038929,
            0.013294254429638386,
            -0.017286961898207664,
            -0.034715522080659866,
            0.0426318384706974,
            0.02479107677936554,
            0.029813110828399658,
            -0.0873202309012413,
            -0.016116458922624588,
            -0.0157929677516222,
            -0.005529327318072319,
            -0.0406629778444767,
            -0.03487495332956314,
            0.022672992199659348,
            -0.035686906427145004,
            0.002835962688550353,
            -0.04144913703203201,
            0.011524105444550514,
            0.004086612723767757,
            -0.014321321621537209,
            0.052013885229825974,
            0.061290591955184937,
            0.04048953950405121,
            0.01762918382883072,
            0.03416244313120842,
            -0.01956344209611416,
            0.05940527841448784,
            0.02459152229130268,
            0.001558654592372477,
            0.010957429185509682,
            -0.13007448613643646,
            -0.027841171249747276,
            0.101887047290802,
            0.1007205992937088,
            0.002586424583569169,
            0.004065613262355328,
            -0.12975333631038666,
            0.016749003902077675,
            0.07875935733318329,
            0.06870313733816147,
            0.02823086641728878,
            0.01647712104022503,
            0.027664074674248695,
            0.015554124489426613,
            -0.026943156495690346,
            0.0416422002017498,
            0.029194345697760582,
            -0.03685003146529198,
            -0.0033785924315452576,
            0.016871308907866478,
            0.012773026712238789,
            -0.0014701205072924495,
            -0.007135971914976835,
            -0.1056264191865921,
            0.019763637334108353,
            0.05421052128076553,
            -0.0799572691321373,
            0.06478207558393478,
            0.07275208085775375,
            -6.137132731964812e-05,
            -0.004460565745830536,
            0.09509625285863876,
            -0.033858440816402435,
            0.006763658951967955,
            0.015970466658473015,
            -0.039643850177526474,
            -0.024925967678427696,
            0.09040059149265289,
            -0.09003343433141708,
            -0.020032359287142754,
            0.005056485999375582,
            0.011331513524055481,
            -0.1611848920583725,
            -0.03605576977133751,
            -0.03745296597480774,
            0.01614122837781906,
            -0.025080353021621704,
            0.12110669910907745,
            -0.04647144302725792,
            0.06569313257932663,
            -0.01540539413690567,
            -0.003961883019655943,
            -0.0129030616953969,
            0.03669581934809685,
            -0.0259977076202631,
            -0.005716289859265089,
            -0.0017945565050467849,
            -0.02017313987016678,
            -0.11250163614749908,
            -0.09334741532802582,
            -0.002392082242295146,
            0.07569114863872528,
            0.09900026023387909,
            -0.06567420065402985,
            -0.08949659019708633,
            0.012465368025004864,
            -0.006075711455196142,
            -0.07542113214731216,
            -0.012172820046544075,
            -0.06607863306999207,
            -0.0028803495224565268,
            0.04073639214038849,
            -0.002057064091786742,
            0.07533738017082214,
            -0.015339626930654049,
            -0.012441596947610378,
            0.03479773923754692,
            -0.0918496772646904,
            0.0037666603457182646,
            0.0019707996398210526,
            0.06169603019952774,
            -0.04448968917131424,
            0.011858255602419376,
            0.003826820058748126,
            -0.04328000545501709,
            0.04609529301524162,
            -0.032785769551992416,
            -0.016101542860269547,
            -0.022046273574233055,
            0.04715333133935928,
            0.138482004404068,
            -0.050892408937215805,
            0.03284728154540062,
            0.011248177848756313,
            -0.02950364351272583,
            0.09852007031440735,
            0.003521611215546727,
            -0.06923286616802216,
            -0.09704209864139557,
            0.01689719967544079,
            0.05891496688127518,
            0.018541807308793068,
            -0.05434379726648331,
            -0.011128576472401619,
            -0.04496677219867706,
            -0.025993376970291138,
            -0.059603143483400345,
            -0.018920231610536575,
            0.03742652013897896,
            -0.033142223954200745,
            0.0167232658714056,
            0.07930869609117508,
            0.036211006343364716,
            -0.0026703188195824623,
            -0.022806992754340172,
            0.009382806718349457,
            0.05852106213569641,
            -0.05351875349879265,
            0.06676186621189117,
            0.020159773528575897,
            0.009199460037052631,
            -0.02320394478738308,
            0.1048247367143631,
            0.03323397412896156,
            0.11911071836948395,
            0.013943085446953773,
            -0.03170834109187126,
            0.01403945591300726,
            0.007642997894436121,
            -0.013950048945844173,
            -0.034318648278713226,
            0.016351478174328804,
            0.032056719064712524,
            0.01397145539522171,
            -0.07723885029554367,
            0.11804566532373428,
            -0.04061516746878624,
            0.049543965607881546,
            -0.01647220551967621,
            -0.03914448618888855,
            0.08206834644079208,
            0.08138120919466019,
            -0.08541792631149292,
            -0.10681598633527756,
            -0.06437189131975174,
            -0.06402038037776947,
            -0.048348408192396164,
            0.06700635701417923,
            -0.05021603778004646,
            -0.11011799424886703,
            -0.13580617308616638,
            0.020860251039266586,
            0.05289393663406372,
            0.08593061566352844,
            0.012845195829868317,
            -0.06332355737686157,
            -0.02587706781923771,
            0.038549620658159256,
            0.05745522305369377,
            -0.11800765991210938,
            -0.035264886915683746,
            -0.013477555476129055,
            -0.006715241353958845,
            0.023007024079561234,
            0.04693781957030296,
            0.019222913309931755,
            -0.0671459212899208,
            -0.14524099230766296,
            0.03291782736778259,
            0.07324273884296417,
            -0.09173693507909775,
            0.08674769848585129,
            0.004386985208839178,
            -0.005780189763754606,
            0.014520244672894478,
            -0.041172172874212265,
            -0.06998337805271149,
            -0.07252252101898193,
            0.04617484658956528,
            -0.0393914170563221,
            0.010278366506099701,
            -0.00916884932667017,
            -0.04388777166604996,
            -0.04678921401500702,
            0.05204186588525772,
            0.03452317789196968,
            -0.003634718945249915,
            -0.006054047029465437,
            -0.016375204548239708,
            -0.09387871623039246,
            0.06585229188203812,
            -0.06899881362915039,
            -0.0475260391831398,
            -0.07136928290128708,
            0.03240327164530754,
            -0.009058483876287937,
            0.05105208232998848,
            0.04656220227479935,
            0.03434903547167778,
            0.04290912672877312,
            0.023637864738702774,
            0.026487810537219048,
            0.0352427177131176,
            0.03793703392148018,
            -0.09749449044466019,
            0.012935656122863293,
            0.015436902642250061,
            0.07218478620052338,
            -0.011202599853277206,
            0.04173017665743828,
            -0.05193200707435608,
            -0.008034461177885532,
            -0.019988978281617165,
            0.012492447160184383,
            -0.026186225935816765,
            0.024082742631435394,
            -0.06426166743040085,
            -0.023954955860972404,
            -0.01871245913207531,
            -0.025249002501368523,
            0.017892979085445404,
            -0.07132738828659058,
            0.003978204447776079,
            0.022973209619522095,
            -0.0008240177412517369,
            -0.004356768447905779,
            0.03556285798549652,
            0.026315703988075256,
            0.013093031942844391,
            0.04797796532511711,
            0.0031093896832317114,
            0.017166435718536377,
            0.04048232361674309,
            0.07844862341880798,
            -0.02665974199771881,
            0.020092692226171494,
            0.06174428015947342,
            0.06320406496524811,
            0.009896443225443363,
            0.0766567513346672,
            0.034707747399806976,
            -0.09777744114398956,
            -0.018698683008551598,
            0.03707895800471306,
            -0.007751776371151209,
            0.01530932355672121,
            0.0472181998193264,
            -0.0027614959981292486,
            0.020519251003861427,
            -0.001940276357345283,
            -0.023958677425980568,
            -0.035104867070913315,
            -0.018341129645705223,
            -0.030932117253541946,
            -0.10897399485111237,
            0.003078603418543935,
            0.05737000331282616,
            -0.025723237544298172,
            0.12467630952596664,
            0.04370281100273132,
            0.033728186041116714,
            0.031205816194415092,
            -0.11487578600645065,
            0.05262989550828934,
            0.009736357256770134,
            -0.12421621382236481,
            0.04874173179268837,
            -0.0836554765701294,
            0.012845921330153942,
            0.024631863459944725,
            0.07718580961227417,
            -0.02286243438720703,
            -0.11301376670598984,
            0.03338373824954033,
            -0.02162250503897667,
            0.05173460766673088,
            0.031809162348508835,
            -0.021220332011580467,
            -0.01564539037644863,
            0.06749836355447769,
            0.0003243692044634372,
            -0.018376629799604416,
            0.049020420759916306,
            -0.0558222234249115,
            -0.03150833025574684,
            0.03669179603457451,
            0.097793348133564,
            -0.042323049157857895,
            0.03494491055607796,
            0.017149385064840317,
            -0.0274729635566473,
            0.06335906684398651,
            -0.06011355668306351,
            -0.012625204399228096,
            0.08610855787992477,
            0.07613135129213333,
            -0.07105910032987595,
            0.08787595480680466,
            -0.03213946893811226,
            -0.027950022369623184,
            -0.019414981827139854,
            0.00018154682766180485,
            -0.038913797587156296,
            0.07300648838281631,
            -0.0721176415681839,
            0.05278253182768822,
            -0.021086588501930237,
            0.004319618921726942,
            0.029078328981995583,
            -0.03133095055818558,
            0.07993877679109573,
            -0.049708131700754166,
            -0.047223854809999466,
            -0.09192652255296707,
            0.010511491447687149,
            -0.014166816137731075,
            0.06351509690284729,
            -0.003316933289170265,
            0.025906583294272423,
            -0.07733236253261566,
            -0.12501005828380585,
            -0.03051675856113434,
            -0.019273728132247925,
            0.03091594949364662,
            -0.030858878046274185,
            0.04652445763349533,
            -0.02456068806350231,
            -0.0020833767484873533,
            -0.029367921873927116,
            0.10861128568649292,
            0.01392676867544651,
            0.0165555402636528,
            0.030741577968001366,
            -0.016318026930093765,
            -0.009849866852164268,
            0.021342027932405472,
            0.14008943736553192,
            0.042127545922994614,
            -0.0246612336486578,
            0.028032515197992325,
            -0.013403559103608131,
            -0.030103076249361038,
            -0.08454891294240952,
            0.08767537027597427,
            0.0780286118388176,
            -0.04312650486826897,
            -0.036585140973329544,
            -0.052722007036209106,
            0.05158821865916252,
            -0.017839692533016205,
            -0.05200081691145897,
            -0.05735913664102554,
            -0.014867502264678478,
            -0.03422514349222183,
            -0.08358026295900345,
            -0.05563664063811302,
            0.06904935836791992,
            -0.0008834634209051728,
            -0.077227383852005,
            -0.06606452167034149,
            -0.02382492832839489,
            0.04141118749976158,
            -0.066209577023983,
            -0.008888243697583675,
            -0.03245020657777786,
            -0.024283627048134804,
            0.08319243043661118,
            -0.025945330038666725,
            0.057014744728803635,
            -0.11447387933731079,
            0.06344529986381531,
            -0.029747381806373596,
            0.010485944338142872,
            -0.026647621765732765,
            -0.02362268790602684,
            -0.03327614814043045,
            -0.01116733718663454,
            -0.009061516262590885,
            0.07126486301422119,
            0.016335466876626015,
            0.00029948746669106185,
            0.08218987286090851,
            -0.018184930086135864,
            0.02352389506995678,
            -0.04730056971311569,
            0.12204129993915558,
            0.0007166781579144299,
            -0.011766074225306511,
            0.05706379562616348,
            -0.026909608393907547,
            -0.001345713739283383,
            -0.029227284714579582,
            -0.011301248334348202,
            0.03697897121310234,
            -0.0859076976776123,
            0.08262885361909866,
            0.13118405640125275,
            0.07880938798189163,
            0.06218748912215233,
            -0.0908072367310524,
            0.06261526793241501,
            -0.11502319574356079,
            -0.04822735860943794,
            -0.02815180830657482,
            0.032674673944711685,
            0.06491585075855255,
            0.08019571006298065,
            -0.004688972141593695,
            0.014450347982347012,
            0.023984109982848167,
            -0.061839353293180466,
            -0.03600996360182762,
            -0.09205875545740128,
            -0.06128394231200218,
            0.11572062224149704,
            0.035080090165138245,
            0.002008618088439107,
            0.036057956516742706,
            0.03873264044523239,
            -0.07233493775129318,
            0.01350184716284275,
            -0.13103802502155304,
            -0.011964074335992336,
            0.024606598541140556,
            -0.01985308900475502,
            0.109865702688694,
            0.01840936206281185,
            -9.245564433513209e-05,
            0.0018072109669446945,
            -0.011415340006351471,
            -0.01780141331255436,
            0.021105997264385223,
            -0.02739880047738552,
            0.0625774934887886,
            -0.0251182708889246,
            0.03522934764623642,
            0.0025579517241567373,
            0.04951445385813713,
            0.0049682422541081905,
            0.0317370630800724,
            0.02487211488187313,
            0.00875441636890173,
            0.050738122314214706,
            -0.039865896105766296,
            0.021979017183184624,
            -0.08400009572505951,
            -0.06170738860964775,
            -0.0264385174959898,
            -0.03556503355503082,
            0.019378384575247765,
            -0.012934520840644836,
            0.012780952267348766,
            -0.06776199489831924,
            -0.030364591628313065,
            -0.040768370032310486,
            0.015148045495152473,
            -0.06801261752843857,
            0.033914145082235336,
            0.009297003038227558,
            -0.008170082233846188,
            0.00563202565535903,
            -0.06433046609163284,
            -0.04434748366475105,
            0.07419132441282272,
            -0.03522895649075508,
            0.023155277594923973,
            0.008210449479520321,
            -0.043124549090862274,
            0.02799905650317669,
            0.0463234968483448,
            0.025530686601996422,
            -0.07102519273757935,
            0.0006403045845218003,
            0.052832067012786865,
            0.02644282393157482,
            -0.03174659237265587,
            -0.02837766520678997,
            0.021096311509609222,
            0.03664926066994667,
            -0.012964124791324139,
            -0.09973066300153732,
            0.021481281146407127,
            0.08831125497817993,
            -0.010286484844982624,
            -0.005783929489552975,
            -0.08769326657056808,
            0.04849047586321831,
            0.06459487229585648,
            -0.007653385400772095,
            -0.15750257670879364,
            -0.02298213355243206,
            -0.005598200485110283,
            0.05887416750192642,
            -0.011288890615105629,
            -0.010084899142384529,
            -0.016484377905726433,
            0.0029137812089174986,
            0.06671931594610214,
            0.10080835968255997,
            0.06825386732816696,
            0.03506080433726311,
            0.04059859737753868,
            -0.023660512641072273,
            -0.01439533568918705,
            0.025129074230790138,
            0.03167709335684776,
            -0.019390832632780075,
            -0.04881865158677101,
            -0.0767308846116066,
            0.03896302357316017,
            0.12791648507118225,
            -0.009180867113173008,
            0.02260148711502552,
            -0.031611621379852295,
            -0.009424685500562191,
            0.09445051103830338,
            0.004975795745849609,
            9.60364704951644e-05,
            0.01925223506987095,
            0.016367612406611443,
            -0.032750971615314484,
            0.02796189859509468,
            0.02579258382320404,
            -0.000987196690402925,
            0.027442414313554764,
            -0.03003610670566559,
            -0.02792990766465664,
            -0.027621958404779434,
            0.0349106602370739,
            0.0690138190984726,
            -0.01467179972678423,
            -0.004853372927755117,
            -0.03218115121126175,
            0.016551339998841286,
            0.08284652978181839,
            0.03144192323088646,
            0.027084682136774063,
            -0.030501723289489746,
            -0.018979301676154137,
            -0.02104746364057064,
            0.0024927654303610325,
            -0.047606322914361954,
            0.0410718210041523,
            0.03888116031885147,
            -0.052854783833026886,
            0.035539161413908005,
            0.06050057336688042,
            0.01971784606575966,
            0.004518651869148016,
            -0.06775666028261185,
            -0.020264029502868652,
            0.06061779335141182,
            0.033117443323135376,
            0.0025925138033926487,
            -0.06443473696708679,
            0.07983656227588654,
            0.032692305743694305,
            0.10650525242090225,
            0.036070797592401505,
            -0.07427121698856354,
            -0.022174270823597908,
            0.052810996770858765,
            0.05864948034286499,
            -0.0880151242017746,
            -0.08983372896909714,
            -0.030911102890968323,
            0.02511209063231945,
            -0.015332713723182678,
            0.034302450716495514,
            -0.024605751037597656,
            -0.024269720539450645,
            -0.002009541727602482,
            -0.022601528093218803,
            0.03707787021994591,
            0.019800228998064995,
            -0.15525558590888977,
            -0.04283958300948143,
            -0.0035380420740693808,
            0.05270635709166527,
            -0.12547561526298523,
            -0.05569685250520706,
            0.003913987427949905,
            -0.0531219020485878,
            0.00042401484097354114,
            -0.005484895780682564,
            -0.03969796001911163,
            0.011903099715709686,
            -0.08494745939970016,
            -0.03420570120215416,
            -0.0089088324457407,
            -0.054354287683963776,
            -0.07964697480201721,
            -0.016206083819270134,
            0.039916981011629105,
            -0.07243134826421738,
            -0.0148419588804245,
            -0.0248622577637434,
            -0.02452482283115387,
            0.004262288101017475,
            -0.01700522191822529,
            -0.1380293220281601,
            -0.07769878953695297,
            0.0712069645524025,
            -0.034410592168569565,
            0.037365853786468506,
            0.04059593006968498,
            -0.0558188259601593,
            0.0018556340364739299,
            0.02666698954999447,
            0.11317624896764755,
            -0.015226914547383785,
            -0.008095832541584969,
            0.06697466224431992,
            -0.027794545516371727,
            0.02861320972442627,
            0.07754933089017868,
            -0.06392713636159897,
            -0.04411395639181137,
            0.0010951001895591617,
            -0.029265278950333595,
            -0.030285483226180077,
            -0.04139295220375061,
            0.040607523173093796,
            0.008811768144369125,
            0.04582204669713974,
            0.03177018091082573,
            -0.09242676198482513,
            -0.022036973387002945,
            -0.010280311107635498,
            0.05768337845802307,
            -0.0313032791018486,
            0.038558948785066605,
            -0.019884800538420677,
            0.1237669512629509,
            -0.03516922891139984,
            -0.027761271223425865,
            -0.10239221900701523,
            0.005269648972898722,
            0.002597539220005274,
            -0.0031418323051184416,
            -0.044686831533908844,
            0.10849591344594955,
            -0.00870961882174015,
            0.011305819265544415,
            0.05088362097740173,
            -0.07491345703601837,
            -0.022215111181139946,
            0.08653386682271957,
            0.052557140588760376,
            0.10328197479248047,
            -0.006185112055391073,
            0.003783476073294878,
            0.03041260503232479,
            -0.05065001919865608,
            -0.04827162250876427,
            0.026101255789399147,
            -0.06541379541158676,
            0.001941116526722908,
            0.011087674647569656,
            -0.059501975774765015,
            0.01226076390594244,
            0.052513957023620605,
            -0.1331651359796524,
            -0.07107376307249069,
            0.030070597305893898,
            0.1119493618607521,
            0.007938959635794163,
            -0.011470089666545391,
            -0.027882251888513565,
            0.03136096149682999,
            -0.040827564895153046,
            0.05802393704652786,
            -0.028362421318888664,
            -0.045718368142843246,
            -0.024383097887039185,
            -0.08406727761030197,
            -0.013344910927116871,
            -0.010176165960729122,
            0.0418599396944046,
            -0.0005698473541997373,
            -0.042718421667814255,
            0.0045608170330524445,
            0.0020676336716860533,
            0.11715026199817657,
            -0.045096829533576965,
            -0.061984725296497345,
            -0.06255071610212326,
            0.022449778392910957,
            0.08074372261762619,
            0.09015069156885147,
            0.007890275679528713,
            -0.10893817991018295,
            0.034607164561748505,
            -0.015499134548008442,
            -0.023124748840928078,
            0.01202586479485035,
            -0.06200272962450981,
            0.08026880025863647,
            -0.017910951748490334,
            -0.005769489333033562,
            -0.055472709238529205,
            -0.010347443632781506,
            -0.053266741335392,
            0.01655888371169567,
            0.04472802206873894,
            0.0037737623788416386,
            0.04206410422921181,
            -0.03210842236876488,
            0.04394180700182915,
            0.02846803143620491,
            0.07325277477502823,
            0.04647204279899597,
            0.0654178112745285,
            0.024510886520147324,
            0.01668105088174343,
            -0.038597799837589264,
            0.01083175465464592,
            0.01086808368563652,
            -0.05561454966664314,
            -0.07873261719942093,
            0.0974014550447464,
            0.05530809983611107,
            -0.010326768271625042,
            -0.07689488679170609,
            -0.051622968167066574,
            0.0038724225014448166,
            -0.11322962492704391,
            0.03937990590929985,
            0.027033522725105286,
            -0.018945343792438507,
            -0.037285011261701584,
            -0.059729546308517456,
            -0.027136867865920067,
            0.06888233870267868,
            0.01624113880097866,
            -0.08365251868963242,
            -0.029291559010744095,
            -0.04240761697292328,
            -0.031157249584794044,
            0.0032587964087724686,
            0.0057859160006046295,
            -0.05423382669687271,
            -0.0341271348297596,
            0.05329752713441849,
            -0.06119555979967117,
            0.04782978817820549,
            0.010487280786037445,
            -0.0033315084874629974,
            0.02833259478211403,
            0.01002037525177002,
            -0.0979928970336914,
            -0.05165668949484825,
            -0.004404130391776562,
            -0.01373384427279234,
            0.026050744578242302,
            0.005168534815311432,
            -0.008511818014085293,
            0.051524657756090164,
            0.07939297705888748,
            -0.0004371275717858225,
            -0.013825437985360622,
            -0.05835013464093208,
            0.02258162759244442,
            -0.01746234856545925,
            0.002931333612650633,
            0.0051920595578849316,
            -0.016311272978782654,
            -0.0014986706664785743,
            0.012285551987588406,
            0.0035980239044874907,
            -0.01873735897243023,
            0.028026729822158813,
            0.08813884109258652,
            0.03561492636799812,
            0.008715162985026836,
            0.06327862292528152,
            0.013024701736867428,
            0.0580306351184845,
            0.08708133548498154,
            0.004054663702845573,
            -0.01874902844429016,
            -0.031498804688453674,
            -0.04070226848125458,
            -0.07180437445640564,
            0.04420272260904312,
            0.04561125487089157,
            0.048282694071531296,
            -0.029036689549684525,
            -0.05201205611228943,
            -0.07440154254436493,
            -0.0865483507514,
            -0.14870916306972504,
            0.006212441250681877,
            -0.033856332302093506,
            -0.009047643281519413,
            -0.061771687120199203,
            0.0041156550869345665,
            0.04554315283894539,
            -0.059091996401548386,
            0.004150878172367811,
            0.005909766536206007,
            -0.023040398955345154,
            -0.00774826854467392,
            -0.05759613588452339,
            -0.024141445755958557,
            0.08794089406728745,
            -0.04720299318432808,
            0.018585393205285072,
            -0.020540036261081696,
            0.011566421948373318,
            0.02582659386098385,
            0.05371818691492081,
            -0.04483778029680252,
            -0.03053835593163967,
            0.02090023085474968,
            -0.00491888914257288,
            0.024318015202879906,
            0.004517026711255312,
            -0.008316656574606895,
            -0.05439571291208267,
            -0.07884841412305832,
            0.009977727197110653,
            -0.029980266466736794,
            0.017558978870511055,
            0.03305499255657196,
            -0.011218256317079067,
            -0.057254571467638016,
            0.02166586183011532,
            0.028591562062501907,
            -0.02503175474703312,
            0.0574132576584816,
            -0.027787311002612114,
            -0.03835117444396019,
            0.018720382824540138,
            0.004877320025116205,
            0.02777312695980072,
            -0.047995708882808685,
            0.021958714351058006,
            0.03402131795883179,
            -0.006867073010653257,
            0.005925019737333059,
            0.0075043970718979836,
            0.08028103411197662,
            -0.1185455322265625,
            -0.06519656628370285,
            0.01658511906862259,
            -0.039234429597854614,
            -0.04885561391711235,
            -0.0804750844836235,
            -0.06122518703341484,
            -0.09007615596055984,
            0.056435950100421906,
            -0.015760788694024086,
            0.0046941242180764675,
            0.030043620616197586,
            -0.012889526784420013,
            -0.10177359730005264,
            -0.012329518795013428,
            0.02086212858557701,
            -0.09517886489629745,
            0.005694208201020956,
            0.1420864462852478,
            -0.0711735412478447,
            -0.05427918583154678,
            0.02489771507680416,
            0.039829008281230927,
            0.01515243947505951,
            0.09989389032125473,
            0.022592606022953987,
            -0.05092235282063484,
            -0.06645239144563675,
            0.06230945140123367,
            0.021543385460972786,
            -0.062138546258211136,
            -0.09499941766262054,
            0.022797465324401855,
            0.0053327432833611965,
            0.005583963822573423,
            0.09501975029706955,
            0.033768460154533386,
            0.0440068244934082,
            -0.001490233582444489,
            0.031691260635852814,
            0.06130148842930794,
            -0.039342667907476425,
            -0.05633139610290527,
            -0.02931894175708294,
            0.03750229626893997,
            -0.0585002563893795,
            -0.08393489569425583,
            -0.04380035027861595,
            0.027474557980895042,
            0.032145705074071884,
            0.007482436485588551,
            0.010708073154091835,
            0.07561131566762924,
            0.07513117790222168,
            0.0030683439690619707,
            0.07597853988409042,
            -0.1364424079656601,
            0.04502669349312782,
            0.06994881480932236,
            -0.021712936460971832,
            0.03564989194273949,
            -0.025852739810943604,
            -0.041960518807172775,
            0.0349285826086998,
            -0.04078001528978348,
            -0.0029268935322761536,
            -0.015228556469082832,
            0.05917501449584961,
            0.055200960487127304,
            0.01010727696120739,
            -0.04263651371002197,
            -0.01928406022489071,
            0.02347947284579277,
            -0.02432115189731121,
            0.00391627149656415,
            -0.13515625894069672,
            0.012529688887298107,
            0.0932975560426712,
            -0.0458761565387249,
            0.07310724258422852,
            -0.062429942190647125,
            -0.07510315626859665,
            0.05584054812788963,
            -0.00948277022689581,
            -0.010133066214621067,
            0.05021565780043602,
            0.00553075922653079,
            -0.07338877767324448,
            -0.00048526382306590676,
            0.036490391939878464,
            0.0009986943332478404,
            0.03399544581770897,
            0.011386985890567303,
            0.0300732534378767,
            -0.029508275911211967,
            -0.009493032470345497,
            -0.032599542289972305,
            0.01069205068051815,
            0.0663134902715683,
            0.03340757638216019,
            0.10212848335504532,
            0.024584239348769188,
            0.07394226640462875,
            0.05477854609489441,
            0.03819195553660393,
            -0.011219939216971397,
            -0.031132204458117485,
            0.04581601917743683,
            -0.021279476583003998,
            -0.022507766261696815,
            0.09540028870105743,
            -0.07689493149518967,
            -0.06846746057271957,
            -0.10327255725860596,
            -0.03250335901975632,
            0.01676020398736,
            -0.05001420900225639,
            -0.027205830439925194,
            0.026778224855661392,
            -0.06832920759916306,
            0.03557100147008896,
            -0.01933576539158821,
            -0.0633857473731041,
            0.02960801124572754,
            0.02148195169866085,
            -0.031854595988988876,
            -0.02960880473256111,
            0.027676371857523918,
            0.00294194626621902,
            -0.006810853723436594,
            0.08414041250944138,
            0.06318377703428268,
            -0.0006035087280906737,
            0.004337573889642954,
            -0.056088920682668686,
            -0.022650299593806267,
            -0.06543589383363724,
            0.06588824838399887,
            -0.04197890684008598,
            0.018066134303808212,
            -0.06111670285463333,
            -0.03360164165496826,
            -0.06006891652941704,
            -0.0009455562685616314,
            -0.031714070588350296,
            0.03351346403360367,
            0.009959233924746513,
            -0.04134943708777428,
            -0.10330692678689957,
            0.029504692181944847,
            0.05559125542640686,
            -0.0003116331936325878,
            -0.08530700206756592,
            -0.08630087226629257,
            -0.0696195662021637,
            0.014800779521465302,
            -0.02683049999177456,
            0.0011370214633643627,
            -0.029532073065638542,
            -0.006010712124407291,
            -0.10620032995939255,
            0.02533954754471779,
            -0.025217333808541298,
            -0.014808985404670238,
            -0.031662438064813614,
            -0.008706958964467049,
            -0.09689502418041229,
            -0.03604986518621445,
            -0.03492623567581177,
            -0.02657652460038662,
            0.014984439127147198,
            -0.02428736537694931,
            -0.05151764303445816,
            -0.022858088836073875,
            -0.03287271410226822,
            0.04174533113837242,
            -0.0008567717741243541,
            -0.020519288256764412,
            -0.016122296452522278,
            0.013118410483002663,
            -0.0031882659532129765,
            0.021801596507430077,
            -0.04537128657102585,
            -0.028565987944602966,
            -0.07491913437843323,
            -0.009504890069365501,
            0.0802096426486969,
            0.05937546119093895,
            -0.01393850427120924,
            0.01295107789337635,
            0.04074297472834587,
            0.027442825958132744,
            0.04952447861433029,
            0.049894895404577255,
            0.029010558500885963,
            -0.015169642865657806,
            0.04733201488852501,
            -0.005911450367420912,
            -0.057889390736818314,
            -0.03952983766794205,
            -0.014541270211338997,
            0.0035463410895317793,
            -0.026921657845377922,
            -0.014507745392620564,
            -0.0557648241519928,
            -0.02646959386765957,
            0.007973946630954742,
            -0.04519021138548851,
            -0.014080815017223358,
            0.05788115784525871,
            -0.04780087247490883,
            -0.051472257822752,
            0.04797336459159851,
            0.02466484159231186,
            -0.04573304206132889,
            -0.00959205161780119,
            -0.052232857793569565,
            0.06291143596172333,
            0.03353134170174599,
            0.004626874811947346,
            -0.08902312815189362,
            0.012123013846576214,
            -0.01572822965681553,
            -0.036099862307310104,
            -0.09372281283140182,
            -0.020348703488707542,
            -0.020846273750066757,
            0.015076708979904652,
            -0.035306885838508606,
            0.04291900247335434,
            0.007190450560301542,
            0.0531802661716938,
            -0.04822440817952156,
            -0.0617779865860939,
            -0.05785803869366646,
            0.010889430530369282,
            -0.021567905321717262,
            -0.013458507135510445,
            -0.014015154913067818,
            -0.0715140849351883,
            -0.03813139349222183,
            -0.013227129355072975,
            -0.023186232894659042,
            0.043298348784446716,
            -0.018849043175578117,
            0.01484000962227583,
            0.03015848994255066,
            -0.043040063232183456,
            -0.011123578064143658,
            0.01293101068586111,
            -0.04319135472178459,
            -0.0012288445141166449,
            0.012935550883412361,
            -0.07211258262395859,
            0.020984282717108727,
            -0.03164339065551758,
            -0.05812237784266472,
            -0.07447447627782822,
            0.02808235026896,
            0.03992389142513275,
            -0.06330288201570511,
            0.018474092707037926,
            0.048129014670848846,
            -0.10905902832746506,
            0.007008303888142109,
            0.06281954050064087,
            -0.01339616160839796,
            0.028037667274475098,
            0.05220780894160271,
            -0.0023264342453330755,
            0.06332690268754959,
            -0.042346954345703125,
            0.04074178636074066,
            -0.042150359600782394,
            -0.06419014185667038,
            -0.012453808449208736,
            0.009257372468709946,
            0.009623168967664242,
            0.04268791154026985,
            -0.031214198097586632,
            -0.03682195395231247,
            0.032430898398160934,
            0.015214885585010052,
            0.08221600204706192,
            -0.0009714378975331783,
            0.0347956046462059,
            0.060217615216970444,
            -0.030939048156142235,
            -0.12523196637630463,
            -0.02533530257642269,
            -0.07003466039896011,
            -0.027253225445747375,
            0.01466273982077837,
            -0.023243313655257225,
            0.005477427039295435,
            0.07957834005355835,
            0.052251216024160385,
            0.026705194264650345,
            -0.04037570208311081,
            0.007314344402402639,
            -0.04798734560608864,
            0.03602687641978264,
            -0.06462905555963516,
            -0.1015540286898613,
            0.07038023322820663,
            -0.09671962261199951,
            0.061364661902189255,
            0.0218356903642416,
            0.0030390338506549597,
            0.028117522597312927,
            0.017535768449306488,
            0.04324803873896599,
            0.0850701704621315,
            0.015833033248782158,
            0.06245656684041023,
            -0.020238645374774933,
            -0.08753041177988052,
            0.03259643167257309,
            0.09813826531171799,
            -0.00630452623590827,
            -0.04068563133478165,
            -0.002893469063565135,
            0.02312048338353634,
            -0.03672114014625549,
            0.04675861448049545,
            -0.17062102258205414,
            -0.005297597032040358,
            -0.05961522459983826,
            -0.09868994355201721,
            -0.010659159161150455,
            0.03927210718393326,
            -0.06435496360063553,
            -0.05482461676001549,
            -0.02049953304231167,
            -0.08058416843414307,
            -0.06862402707338333,
            -0.018568040803074837,
            -0.026002639904618263,
            -0.01932344399392605,
            0.0034093752037733793,
            -0.009358171373605728,
            0.016183799132704735,
            0.031758371740579605,
            -0.0056016999296844006,
            -0.014731022529304028,
            -0.08201916515827179,
            0.03258293494582176,
            0.05770818516612053,
            0.00022415989951696247,
            0.03519260510802269,
            -0.02606341801583767,
            -0.09414393454790115,
            -0.0049766008742153645,
            -0.07473218441009521,
            -0.010070513002574444,
            -0.006375558208674192,
            0.02874014712870121,
            -0.052234720438718796,
            0.033560894429683685,
            -0.03596431389451027,
            -0.11967539042234421,
            0.009893065318465233,
            -0.10482534021139145,
            -0.04398573935031891,
            0.03318552300333977,
            0.006567752454429865,
            -0.03410635143518448,
            0.03796909749507904,
            0.05302784964442253,
            -0.05267069488763809,
            0.014199051074683666,
            0.014551589265465736,
            0.08498891443014145,
            -0.06222009286284447,
            0.047819118946790695,
            0.0153427142649889,
            -0.018683407455682755,
            -0.011035655625164509,
            -0.0032106817234307528,
            -0.012000317685306072,
            -0.06694088876247406,
            -0.06677335500717163,
            0.002134608570486307,
            -0.032005179673433304,
            0.06584588438272476,
            -0.07008284330368042,
            -0.03175521269440651,
            -0.07031197845935822,
            -0.04011388495564461,
            -0.003809429472312331,
            0.05873168632388115,
            -0.008685193955898285,
            0.0026679348666220903,
            -0.062473174184560776,
            0.019820740446448326,
            -0.04979824647307396,
            0.001750526367686689,
            0.08498390763998032,
            0.06923230737447739,
            -0.05393577739596367,
            0.04551456496119499,
            -0.014769281260669231,
            -0.06735459715127945,
            0.046744707971811295,
            0.04925951734185219,
            0.03190616890788078,
            -0.06525330245494843,
            0.04958406463265419,
            0.004668326582759619,
            -0.003861314384266734,
            0.0077745369635522366,
            0.04639894887804985,
            -0.056582558900117874,
            0.07733646035194397,
            -0.0402805432677269,
            0.08734998106956482,
            -0.004912772215902805,
            0.0064621190540492535,
            0.01608387939631939,
            0.0042271665297448635,
            0.03645540401339531,
            0.0017736306181177497,
            -0.00897264014929533,
            0.053142059594392776,
            -0.02990337647497654,
            0.005690332036465406,
            0.08820446580648422,
            -0.01008627749979496,
            0.06189282611012459,
            0.03026367723941803,
            0.018941516056656837,
            -0.003025433514267206,
            0.02912309765815735,
            0.03028661571443081,
            -0.00989363994449377,
            0.09334565699100494,
            0.028323257341980934,
            0.030802253633737564,
            -0.03659689426422119,
            -0.02088065631687641,
            -0.002131811808794737,
            0.028310377150774002,
            -0.006812103092670441,
            -0.005864981096237898,
            -0.03168722987174988,
            0.009894251823425293,
            0.09020248800516129,
            -0.022042596712708473,
            -0.031974177807569504,
            0.006286616902798414,
            0.0026963811833411455,
            -0.046589162200689316,
            0.13036206364631653,
            -0.029997212812304497,
            0.040271759033203125,
            -0.0041539110243320465,
            -0.014347858726978302,
            -0.006839592941105366,
            -0.02021881937980652,
            0.11538872867822647,
            -0.03568929061293602,
            0.03175976499915123,
            0.06924595683813095,
            -0.029615987092256546,
            -0.006019480060786009,
            -0.0021298115607351065,
            -0.0029597016982734203,
            -0.022001665085554123,
            0.06092929467558861,
            0.1477692723274231,
            -0.01732001267373562,
            -0.0040636430494487286,
            0.14516226947307587,
            0.02677447907626629,
            0.04141104221343994,
            0.04591302201151848,
            0.058099884539842606,
            -0.15388670563697815,
            0.04855659231543541,
            0.0049372646026313305,
            0.1054731011390686,
            0.02613152377307415,
            0.029753072187304497,
            0.005009267944842577,
            -0.009541925974190235,
            0.044832829385995865,
            0.09195436537265778,
            -0.002593227894976735,
            0.005627741571515799,
            -0.0663670152425766,
            0.0029361448250710964,
            -0.039385877549648285,
            0.059920232743024826,
            0.05372604355216026,
            -0.029069235548377037,
            0.038101427257061005,
            -0.031923096626996994,
            0.054005127400159836,
            -0.047315873205661774,
            -0.006298457738012075,
            -0.03966394066810608,
            -0.01475259568542242,
            -0.0809180736541748,
            -0.023262036964297295,
            -0.06164827570319176,
            0.07100188732147217,
            0.06644967943429947,
            0.023008111864328384,
            -0.041097190231084824,
            -0.022333888337016106,
            0.0350828617811203,
            0.005626744125038385,
            0.04510160908102989,
            0.0031205599661916494,
            0.017353219911456108,
            0.07852490246295929,
            -0.003991211764514446,
            -0.009220932610332966,
            -0.1342855542898178,
            -0.11344730854034424,
            0.03780518099665642,
            0.04756353422999382,
            0.03670975938439369,
            -0.059175021946430206,
            0.02594282105565071,
            0.12397538870573044,
            0.0028262606356292963,
            -0.06243174895644188,
            -0.08436550945043564,
            0.003992341458797455,
            0.09349268674850464,
            0.027501026168465614,
            0.004389147274196148,
            0.04700344055891037,
            -0.004682496190071106,
            0.04859304055571556,
            0.06925824284553528,
            0.026229128241539,
            -0.010777721181511879,
            0.052623212337493896,
            -0.020460279658436775,
            0.06574328988790512,
            0.0013269544579088688,
            -0.01119933556765318,
            -0.01377250999212265,
            -0.10058076679706573,
            -0.08006178587675095,
            0.016272803768515587,
            0.06068485975265503,
            -0.08401984721422195,
            -0.07482092827558517,
            0.02268989197909832,
            0.025700468569993973,
            -0.01011869590729475,
            -0.061765849590301514,
            0.04702584445476532,
            -0.03977763280272484,
            -0.03855367749929428,
            -0.024201737716794014,
            0.041426509618759155,
            -0.05039873719215393,
            -0.010157983750104904,
            0.014812017790973186,
            0.002874725265428424,
            -0.09268169850111008,
            0.010507214814424515,
            0.07932204008102417,
            0.019541941583156586,
            0.005613153334707022,
            0.017513088881969452,
            -0.08478105813264847,
            0.05272163823246956,
            0.03341572359204292,
            -0.0741032287478447,
            -0.021031422540545464,
            0.033389657735824585,
            -0.06241675838828087,
            0.009911836124956608,
            -0.0002893308410421014,
            0.09045250713825226,
            -0.02797047235071659,
            0.010309776291251183,
            0.00922138150781393,
            -0.015800418332219124,
            -0.006054951809346676,
            0.07333793491125107,
            -0.053342413157224655,
            0.021373189985752106,
            0.024475978687405586,
            0.043975796550512314,
            0.051906514912843704,
            0.019953859969973564,
            0.10287835448980331,
            -0.0017692517722025514,
            -0.0688520297408104,
            0.02565830945968628,
            0.023741012439131737,
            -0.01840849779546261,
            0.00016215357754845172,
            -0.016922852024435997,
            -0.026502463966608047,
            0.02374301850795746,
            0.011468179523944855,
            -0.07716378569602966,
            0.010643051005899906,
            0.027639776468276978,
            0.06928876042366028,
            -0.010713517665863037,
            -0.009055491536855698,
            -0.017718462273478508,
            0.03764251619577408,
            -0.03587590157985687,
            0.0042497203685343266,
            0.004944522865116596,
            0.06473417580127716,
            0.038019776344299316,
            0.013970124535262585,
            -0.03100491501390934,
            0.025994477793574333,
            0.0034505389630794525,
            0.04741593822836876,
            -0.0062092687003314495,
            -0.02639334462583065,
            0.003999846987426281,
            0.07210296392440796,
            -0.05589313060045242,
            0.03360576182603836,
            0.023069513961672783,
            -0.028218040242791176,
            -0.06283224374055862,
            -0.03706422448158264,
            -0.04237545281648636,
            0.05763516575098038,
            0.028678078204393387,
            0.044896867126226425,
            0.012539480812847614,
            -0.06489738076925278,
            -0.017062503844499588,
            -0.07118754833936691,
            0.01171741634607315,
            -0.06103144958615303,
            0.013315009884536266,
            -0.02562645450234413,
            -0.03326571360230446,
            -0.038388632237911224,
            -0.048635873943567276,
            0.02213994227349758,
            0.09123238176107407,
            -0.007892514578998089,
            -0.007280256599187851,
            -0.05343262478709221,
            -0.006279800087213516,
            -0.005027747713029385,
            -0.030468542128801346,
            -0.025326071307063103,
            -0.0009280016529373825,
            -0.011494765989482403,
            -0.013160886242985725,
            -0.055349260568618774,
            -0.09628959745168686,
            0.003998295869678259,
            -0.015181506983935833,
            -0.04819917306303978,
            0.03397281840443611,
            -0.10057618468999863,
            -0.0036956218536943197,
            0.03034251742064953,
            -0.035867176949977875,
            0.03413375839591026,
            -0.07884012907743454,
            0.02657475508749485,
            -0.01668068766593933,
            -0.05055305361747742,
            0.013715850189328194,
            0.07328768074512482,
            -0.01564275659620762,
            0.06903435289859772,
            -0.038197871297597885,
            0.0045976839028298855,
            -0.019446417689323425,
            0.019855162128806114,
            -0.02411811612546444,
            0.09761498868465424,
            0.01081909891217947,
            0.09990432113409042,
            -0.015472843311727047,
            -0.005540572106838226,
            0.024903742596507072,
            0.03919096291065216,
            0.009422585368156433,
            0.04429222643375397,
            -0.08890797942876816,
            -0.1021416112780571,
            0.10493143647909164,
            -0.038198892027139664,
            0.02761547639966011,
            0.05125115439295769,
            0.03347265347838402,
            -0.11547865718603134,
            0.14930130541324615,
            0.051161445677280426,
            -0.06340458244085312,
            0.01742403768002987,
            0.013783062808215618,
            0.04512205347418785,
            -0.023308591917157173,
            -0.0289260596036911,
            -0.02690897323191166,
            -0.05902532488107681,
            0.06488145142793655,
            0.009342667646706104,
            0.051258720457553864,
            -0.010333790443837643,
            -0.017640748992562294,
            -0.01654697395861149,
            0.08393970876932144,
            -0.007367871236056089,
            -0.017733339220285416,
            -0.0607898123562336,
            -0.012005030177533627,
            0.03077453188598156,
            -0.043571051210165024,
            -0.046034492552280426,
            0.00311887264251709,
            -0.06730885058641434,
            0.045249804854393005,
            0.020485810935497284,
            0.03349494934082031,
            -0.04406260699033737,
            0.005980151239782572,
            0.03766877204179764,
            -0.020448587834835052,
            -0.004495298024266958,
            0.006835783366113901,
            -0.03326673060655594,
            -0.06436508148908615,
            0.005132996942847967,
            0.022283123806118965,
            0.01704002358019352,
            0.05738013610243797,
            0.041843853890895844,
            -0.0669005885720253,
            -0.03599809855222702,
            -0.05597938224673271,
            -0.06652122735977173,
            0.0033858485985547304,
            0.00847617257386446,
            -0.018794937059283257,
            0.0074111828580498695,
            0.044309791177511215,
            -0.021467916667461395,
            -0.030774367973208427,
            0.05660298466682434,
            0.016956716775894165,
            -0.033357638865709305,
            0.021466271951794624,
            0.06155863031744957,
            -0.01241851132363081,
            -0.012270225211977959,
            0.0025497765745967627,
            0.02468881383538246,
            0.01046548131853342,
            0.08368843048810959,
            -0.0017815273022279143,
            -0.023900173604488373,
            -0.07884451746940613,
            0.06453675776720047,
            0.025992143899202347,
            0.046655893325805664,
            -0.049186062067747116,
            0.011608846485614777,
            0.022248055785894394,
            -0.008802341297268867,
            0.010795217007398605,
            0.07582046836614609,
            -0.003050685627385974,
            0.07475323230028152,
            -0.07243367284536362,
            -0.08569290488958359,
            0.020994476974010468,
            -0.09904617816209793,
            0.021899694576859474,
            -0.021488897502422333,
            0.041267286986112595,
            -0.06013154983520508,
            0.04595334455370903,
            -0.04435768350958824,
            -0.08251923322677612,
            0.08401455730199814,
            0.031450819224119186,
            0.04792437329888344,
            -0.045231666415929794,
            -0.021758994087576866,
            -0.1360771805047989,
            -0.010620144195854664,
            0.07288092374801636,
            0.0007450425764545798,
            -0.0073685855604708195,
            0.06897496432065964,
            0.0050191436894237995,
            0.024380970746278763,
            0.01953577809035778,
            -0.007957154884934425,
            0.013206848874688148,
            -0.005170527379959822,
            -0.0027288945857435465,
            -0.1224176436662674,
            0.03935980424284935,
            0.017080746591091156,
            0.06852127611637115,
            -0.008555006235837936,
            0.04662279412150383,
            0.04677075892686844,
            -0.029171047732234,
            -0.06599157303571701,
            -0.021524693816900253,
            0.024174487218260765,
            -0.03476039692759514,
            0.013474471867084503,
            -0.06365552544593811,
            -0.06439400464296341,
            0.08537395298480988,
            -0.035124000161886215,
            0.05708494409918785,
            0.001729512820020318,
            0.03900976479053497,
            -0.006167723331600428,
            -0.06064051389694214,
            0.04194243997335434,
            -0.020781967788934708,
            -0.011302124708890915,
            -0.01717405393719673,
            0.004854707513004541,
            -0.01577996276319027,
            0.08476310223340988,
            -0.024743858724832535,
            0.028515463694930077,
            0.09218181669712067,
            -0.041501909494400024,
            0.03973814472556114,
            0.07057017832994461,
            -0.11058278381824493,
            0.04014893248677254,
            0.036213796585798264,
            -0.06894126534461975,
            0.035774294286966324,
            -0.02667994610965252,
            -0.028893811628222466,
            -0.040061105042696,
            0.03091161511838436,
            0.02185186930000782,
            -0.028765399008989334,
            -0.09794977307319641,
            -0.03173225373029709,
            -0.016213199123740196,
            0.04527974873781204,
            0.05432441830635071,
            -0.013773283921182156,
            0.13789287209510803,
            -0.004829485435038805,
            -0.030988816171884537,
            0.04058050736784935,
            -0.04902055114507675,
            0.0342894084751606,
            0.0010707116452977061,
            -0.00943806953728199,
            -0.004201654344797134,
            0.008285531774163246,
            0.002730376785621047,
            -0.0338168665766716,
            -0.005452706944197416,
            0.0003871579538099468,
            -0.010655881837010384,
            0.03356575593352318,
            0.023050528019666672,
            -0.021135862916707993,
            0.009187459014356136,
            0.005209802649915218,
            -0.0889679342508316,
            -0.08434301614761353,
            -0.059913575649261475,
            0.07029079645872116,
            0.0578332357108593,
            -0.0034262400586158037,
            0.02236752025783062,
            0.026910800486803055,
            0.0540529265999794,
            0.01009612251073122,
            0.03912318870425224,
            -0.036648206412792206,
            -0.008929685689508915,
            0.0144933657720685,
            0.005713442340493202,
            0.03209258243441582,
            -0.04548494517803192,
            0.03623724728822708,
            -0.006630992982536554,
            -0.047529611736536026,
            -0.022024495527148247,
            0.005407729651778936,
            -0.025155624374747276,
            -0.025360381230711937,
            -0.012227977626025677,
            0.027603954076766968,
            0.08774995058774948,
            0.02149081975221634,
            0.019533522427082062,
            -0.012237023562192917,
            -0.007137266453355551,
            -0.11805196851491928,
            -0.020821576938033104,
            0.04987175390124321,
            0.022125348448753357,
            -0.04953084513545036,
            0.05752810835838318,
            -0.04288054630160332,
            0.08040937036275864,
            0.011252771131694317,
            -0.008123557083308697,
            0.02995981089770794,
            0.096248559653759,
            0.09730994701385498,
            -0.08000164479017258,
            0.07422014325857162,
            0.04843267798423767,
            -0.040472518652677536,
            0.0031346373725682497,
            0.007056927774101496,
            0.0692075788974762,
            0.06755330413579941,
            0.033634405583143234,
            0.029086166992783546,
            0.038366708904504776,
            -0.10098427534103394,
            -0.053243763744831085,
            0.04405117779970169,
            0.007328439503908157,
            -0.07856612652540207,
            0.019089294597506523,
            0.042446691542863846,
            -0.017065905034542084,
            0.027620641514658928,
            0.11378355324268341,
            0.07264357805252075,
            -0.006426581181585789,
            0.03089386783540249,
            -0.062484413385391235,
            0.017564427107572556,
            0.036426205188035965,
            0.10674798488616943,
            -0.09676805138587952,
            0.054447829723358154,
            0.04102328047156334,
            -0.06033123657107353,
            0.0060484097339212894,
            0.04663783684372902,
            -0.040828999131917953,
            0.06610894948244095,
            -0.06894133985042572,
            -0.058822549879550934,
            0.014983931556344032,
            -0.03359461948275566,
            0.050679903477430344,
            -0.026455247774720192,
            -0.03216502442955971,
            -0.0916675478219986,
            0.05876743793487549,
            0.023033471778035164,
            0.03514547646045685,
            -0.07017053663730621,
            0.030354931950569153,
            -0.03879743069410324,
            0.09561696648597717,
            -0.03707478940486908,
            -0.05934488773345947,
            0.10571899265050888,
            0.008658613078296185,
            0.01854286715388298,
            -0.016748635098338127,
            0.057659413665533066,
            0.019057108089327812,
            0.013002678751945496,
            0.02260730415582657,
            -0.010267329402267933,
            0.009744459763169289,
            -0.013129683211445808,
            -0.02409110777080059,
            0.05296952649950981,
            -0.06035655736923218,
            0.0274677574634552,
            -0.0576762817800045,
            0.01567535474896431,
            -0.024860965088009834,
            -0.06496025621891022,
            -0.03685890883207321,
            0.09771016240119934,
            -0.06293635815382004,
            0.013883153907954693,
            -0.011265906505286694,
            0.061250653117895126,
            0.02827451191842556,
            0.07212408632040024,
            -0.025383053347468376,
            0.002534196013584733,
            0.029715711250901222,
            -0.006634985562413931,
            0.04641865938901901,
            -0.10374360531568527,
            -0.03213873133063316,
            -0.0451895110309124,
            0.04424578696489334,
            0.028546759858727455,
            -0.11916699260473251,
            -0.007348916959017515,
            -0.056337740272283554,
            -0.04209664463996887,
            -0.026797860860824585,
            -0.029883429408073425,
            -0.006729569286108017,
            0.03637751191854477,
            -0.027004171162843704,
            -0.001774825039319694,
            -0.04917936399579048,
            -0.03656879439949989,
            -0.12398984283208847,
            0.041613053530454636,
            0.07299797981977463,
            0.036054473370313644,
            -0.09511306136846542,
            0.08252283185720444,
            -0.07537990063428879,
            -0.04774719104170799,
            0.10635697841644287,
            -0.1171480342745781,
            -0.12506668269634247,
            -0.007271112408488989,
            0.03265406936407089,
            0.025818249210715294,
            0.04027947410941124,
            0.05554090067744255,
            0.025122512131929398,
            -0.016683049499988556,
            0.06563819944858551,
            -0.05395999550819397,
            -0.02214130014181137,
            -0.046121757477521896,
            0.04833977296948433,
            -0.09804322570562363,
            -0.018106622621417046,
            0.05719775706529617,
            0.031007573008537292,
            0.02324916236102581,
            -0.027821732684969902,
            0.014966100454330444,
            0.00380394677631557,
            -0.017581757158041,
            -0.05426740646362305,
            0.01018613576889038,
            -0.018344156444072723,
            -0.02487991936504841,
            0.05105384811758995,
            0.0076214829459786415,
            0.03611603006720543,
            0.011730757541954517,
            0.03537318482995033,
            -0.005497436039149761,
            -0.030620789155364037,
            -0.06269416213035583,
            -0.11372137069702148,
            0.018648169934749603,
            0.09104938805103302,
            0.02727285958826542,
            0.022476157173514366,
            0.054852962493896484,
            0.014354956336319447,
            0.04053078591823578,
            -0.08444453030824661,
            0.05167582258582115,
            0.006266623269766569,
            0.039753831923007965,
            0.0480467863380909,
            -0.048356663435697556,
            0.02093159593641758,
            -0.06167135760188103,
            -0.06599365919828415,
            -0.08820474147796631,
            0.06139431521296501,
            -0.11573383957147598,
            -0.028896266594529152,
            0.03704402595758438,
            0.037705592811107635,
            0.0037588768173009157,
            -0.01235973834991455,
            -0.0027711186558008194,
            -0.029640940949320793,
            0.021693337708711624,
            0.016328239813447,
            -0.010078093968331814,
            0.025051141157746315,
            0.06841551512479782,
            0.0651044175028801,
            -0.07265620678663254,
            -0.04332101717591286,
            -0.04118191823363304,
            0.05018531158566475,
            0.0877569243311882,
            0.032159022986888885,
            -0.05087260156869888,
            -0.037722017616033554,
            -0.03030744008719921,
            0.003938192036002874,
            -0.04086035117506981,
            0.017356865108013153,
            -0.03524462506175041,
            -0.012610751204192638,
            0.017123891040682793,
            0.02149086818099022,
            0.04860270395874977,
            0.02589685656130314,
            0.0835500955581665,
            -0.08299319446086884,
            -0.023792220279574394,
            0.0600874237716198,
            -0.017888737842440605,
            0.06441384553909302,
            0.007765753660351038,
            -0.04359271377325058,
            -0.02725515328347683,
            0.01551459264010191,
            -0.035709768533706665,
            0.02111554890871048,
            -0.03191566467285156,
            -0.049079060554504395,
            -0.09642188996076584,
            0.07842037826776505,
            0.0665285512804985,
            0.07650499045848846,
            0.07081346213817596,
            0.1282222718000412,
            0.04727519676089287,
            -0.06184157729148865,
            -0.02914719097316265,
            0.05213111639022827,
            -0.008823242038488388,
            0.06470585614442825,
            0.011255460791289806,
            -0.062452781945466995,
            0.12079479545354843,
            -0.042553700506687164,
            0.11139916628599167,
            0.052904654294252396,
            -0.019294438883662224,
            -0.01929165981709957,
            0.057261522859334946,
            -0.12647725641727448,
            0.019069068133831024,
            -0.06264210492372513,
            -0.06985566765069962,
            0.02392544038593769,
            -0.06324007362127304,
            0.010025568306446075,
            -0.018153268843889236,
            0.07462014257907867,
            0.015237550251185894,
            -0.003961279522627592,
            -0.006557106506079435,
            -0.05850318819284439,
            0.11927604675292969,
            0.06143397092819214,
            0.10790671408176422,
            0.0655445009469986,
            -0.004615511279553175,
            0.03008631244301796,
            -0.09433222562074661,
            0.07730001956224442,
            0.10166014730930328,
            -0.04133822023868561,
            -0.036295510828495026,
            0.05026478320360184,
            0.0313258171081543,
            -0.018669459968805313,
            -0.04296615347266197,
            0.028888365253806114,
            -0.02027079090476036,
            -0.08015996962785721,
            -0.018072443082928658,
            0.034955259412527084,
            0.05175385624170303,
            -0.08326094597578049,
            -0.06318288296461105,
            -0.054531391710042953,
            0.027610598132014275,
            -0.033473577350378036,
            -0.08837132900953293,
            0.02580196224153042,
            -0.004887738730758429,
            -0.019849196076393127,
            -0.018438002094626427,
            -0.021829774603247643,
            -0.044470932334661484,
            -0.0019187575671821833,
            -0.041723690927028656,
            -0.09588229656219482,
            0.0365280918776989,
            0.02938741445541382,
            0.0014953481731936336,
            -0.07950010150671005,
            0.12155520170927048,
            -0.09179195016622543,
            -0.016997922211885452,
            -0.026561370119452477,
            -0.07340586930513382,
            0.0595562718808651,
            0.052172452211380005,
            -0.0578012652695179,
            0.051047828048467636,
            -0.04523657262325287,
            0.017527641728520393,
            -0.06557413190603256,
            0.008885609917342663,
            -0.042527936398983,
            -0.06150053068995476,
            0.040103062987327576,
            -0.08048512786626816,
            -0.04760660603642464,
            0.03709041699767113,
            0.07666831463575363,
            0.04300091788172722,
            0.07764040678739548,
            -0.058418888598680496,
            -0.06444700807332993,
            0.09402819722890854,
            -0.005603879224509001,
            -0.021533668041229248,
            -0.031169498339295387,
            -0.004111221991479397,
            -0.027818337082862854,
            -0.021250426769256592,
            0.01213191170245409,
            0.006881778594106436,
            -0.003058467758819461,
            0.039417266845703125,
            0.012790368869900703,
            -0.04763908311724663,
            -0.09861644357442856,
            0.02047397382557392,
            -0.028426427394151688,
            -0.007881718687713146,
            -0.002211742103099823,
            0.018263179808855057,
            0.009389753453433514,
            0.016197791323065758,
            0.07310395687818527,
            -0.055516209453344345,
            0.025022003799676895,
            -0.04257996007800102,
            0.0568535141646862,
            -0.045922473073005676,
            -0.027825716882944107,
            -0.005399512127041817,
            0.01108125876635313,
            -0.02608928643167019,
            0.08090435713529587,
            0.11891710758209229,
            0.05789681896567345,
            -0.06142199784517288,
            -0.06602462381124496,
            -0.02882961928844452,
            0.025699375197291374,
            -0.018826015293598175,
            0.008877738378942013,
            0.0490177683532238,
            0.021173924207687378,
            -0.015210944227874279,
            -0.06153750419616699,
            -0.0075583308935165405,
            0.05767491087317467,
            0.0005175282130949199,
            -0.0951891615986824,
            0.025942254811525345,
            -0.016826514154672623,
            -0.038934558629989624,
            0.043987832963466644,
            0.030517781153321266,
            -0.018236668780446053,
            0.04625650495290756,
            0.06469088047742844,
            0.07037682086229324,
            0.08299724012613297,
            0.03950108215212822,
            -0.09363455325365067,
            -0.03445182368159294,
            -0.06474821269512177,
            -0.013556255958974361,
            -0.032723065465688705,
            -0.03577956184744835,
            -0.07183351367712021,
            0.10772754997015,
            -0.035901445895433426,
            0.04954743757843971,
            0.05879810452461243,
            0.016791222617030144,
            -0.0047902557998895645,
            0.02179642580449581,
            0.04863201081752777,
            0.017073512077331543,
            0.02566097117960453,
            0.03063489869236946,
            0.015096343122422695,
            0.008163983933627605,
            0.011598187498748302,
            0.017965998500585556,
            -0.04951721802353859,
            0.04096568375825882,
            0.02268749289214611,
            -0.00025429175002500415,
            -0.02525916136801243,
            0.04600688815116882,
            0.056413616985082626,
            -0.07479065656661987,
            -0.014645392075181007,
            -0.06787901371717453,
            0.10532312840223312,
            0.0662657618522644,
            -0.020274119451642036,
            -0.004569910932332277,
            0.04170599952340126,
            -0.01761544682085514,
            0.05906127765774727,
            0.057771485298871994,
            -0.08171691000461578,
            0.008866629563272,
            0.07364162802696228,
            -0.033497404307127,
            -0.05173812061548233,
            0.0025066472589969635,
            -0.02413107268512249,
            0.006659511476755142,
            0.10403575748205185,
            -0.02718297578394413,
            0.008270024321973324,
            0.030152300372719765,
            -0.016450418159365654,
            0.05780795216560364,
            0.0050784628838300705,
            -0.01463779341429472,
            -0.10557226091623306,
            0.038590025156736374,
            0.050306130200624466,
            -0.024119457229971886,
            -0.03813434764742851,
            0.0021264071110635996,
            0.02059713937342167,
            0.02401679754257202,
            0.047945670783519745,
            0.02314191497862339,
            -0.02243964560329914,
            0.06514647603034973,
            0.006238684523850679,
            0.021030358970165253,
            -0.024579456076025963,
            -0.05912066251039505,
            0.03910153731703758,
            -0.042528849095106125,
            -0.046226054430007935,
            0.032369378954172134,
            -0.015314079821109772,
            -0.03860821947455406,
            -0.10919548571109772,
            -0.030370373278856277,
            0.019379837438464165,
            0.005093443673104048,
            0.03714411333203316,
            0.03629135340452194,
            -0.0406389981508255,
            -0.008596912957727909,
            0.08295607566833496,
            0.1003371998667717,
            0.09915569424629211,
            -0.04160105809569359,
            0.0454593151807785,
            -0.05682428553700447,
            -0.05446112900972366,
            -0.04171067848801613,
            0.04051091894507408,
            0.027784690260887146,
            -0.02483278699219227,
            0.05981021746993065,
            0.0579630509018898,
            -0.04860368371009827,
            0.04553075507283211,
            0.068353570997715,
            -0.016604099422693253,
            0.03322063386440277,
            -0.048066046088933945,
            -0.03158013895153999,
            -0.00506468815729022,
            0.02686089277267456,
            -0.06663472950458527,
            0.04739774391055107,
            0.06777293235063553,
            0.0044807069934904575,
            0.003524011466652155,
            0.07197301834821701,
            -0.015456016175448895,
            -0.014969617128372192,
            0.0017927915323525667,
            0.035964127629995346,
            -0.024298908188939095,
            -0.06593983620405197,
            0.08422195166349411,
            0.012575692497193813,
            -0.02480350248515606,
            0.07226120680570602,
            0.055463045835494995,
            -0.066328264772892,
            -0.07028549164533615,
            0.013163349591195583,
            0.05676434561610222,
            -0.008091000840067863,
            -0.04256073758006096,
            -0.11519324034452438,
            0.0961567685008049,
            -0.008653838187456131,
            -0.05710843205451965,
            -0.0454869382083416,
            -0.0074579487554728985,
            -0.012386875227093697,
            0.07365256547927856,
            -0.05324998497962952,
            0.004944097716361284,
            0.15618322789669037,
            -0.042154110968112946,
            -0.02283691242337227,
            0.03931920975446701,
            -0.08611412346363068,
            0.03214825317263603,
            -0.024674681946635246,
            0.031032854691147804,
            -0.02505362592637539,
            -0.04681490734219551,
            -0.022807052358984947,
            -0.03381700441241264,
            -0.10276748985052109,
            0.008075051940977573,
            0.05115777254104614,
            -0.012218273244798183,
            -0.04024310037493706,
            -0.009915619157254696,
            -0.025006258860230446,
            0.0037114073056727648,
            -0.0626249834895134,
            -0.014048898592591286,
            0.05024057254195213,
            0.017770996317267418,
            0.031763460487127304,
            -0.03773193433880806,
            0.08629368990659714,
            0.03715982660651207,
            0.004438820760697126,
            0.03106873296201229,
            0.04426317662000656,
            0.020832516252994537,
            -0.0630064457654953,
            0.039724577218294144,
            0.02766045741736889,
            0.0850173681974411,
            0.03798007592558861,
            -0.05077427625656128,
            0.016243577003479004,
            0.056559402495622635,
            -0.024711795151233673,
            0.0014415960758924484,
            0.03686530515551567,
            -0.036736126989126205,
            -0.022803252562880516,
            -0.014580835588276386,
            -0.02949046529829502,
            -0.03053608536720276,
            -0.0977947935461998,
            0.019711483269929886,
            -0.02028110809624195,
            -0.005507020279765129,
            -0.03015430085361004,
            0.05811110883951187,
            0.02566913329064846,
            0.0068552023731172085,
            0.018691539764404297,
            0.03472761809825897,
            -0.05885577201843262,
            -0.04123227670788765,
            0.09853797405958176,
            0.007139996625483036,
            -0.07490224391222,
            0.06384029239416122,
            0.03506609797477722,
            -0.06748023629188538,
            0.06885720789432526,
            -0.006015739869326353,
            -0.0784883126616478,
            0.046456269919872284,
            -0.047110188752412796,
            -0.013932046480476856,
            0.0751122459769249,
            0.010242827236652374,
            -0.03523580729961395,
            0.08924507349729538,
            -0.028511349111795425,
            -0.0040925792418420315,
            -0.0383184477686882,
            -0.012859667651355267,
            0.05391567572951317,
            0.028369620442390442,
            0.04884025827050209,
            -0.00923911016434431,
            0.07920780032873154,
            0.027184633538126945,
            0.0433255098760128,
            -0.12818244099617004,
            -0.0912780612707138,
            0.09530054032802582,
            -0.004333160351961851,
            -0.007822416722774506,
            -0.008042510598897934,
            -0.02018565498292446,
            -0.04482602700591087,
            0.05606160685420036,
            0.0056179240345954895,
            0.019930725917220116,
            0.019658347591757774,
            -0.010324540548026562,
            0.03428436443209648,
            0.10815490782260895,
            0.010387182235717773,
            0.04089805856347084,
            0.01704086922109127,
            -0.13272801041603088,
            -0.013910965994000435,
            -0.021112874150276184,
            0.024640878662467003,
            0.05626117065548897,
            -0.02769935131072998,
            -0.018092451617121696,
            -0.004415450617671013,
            -0.025422049686312675,
            0.002793879946693778,
            0.027585923671722412,
            -0.07310210913419724,
            -0.07346366345882416,
            0.0034006224013864994,
            0.027820590883493423,
            -0.005002285819500685,
            -0.022454960271716118,
            0.06297238916158676,
            0.01922752521932125,
            0.05451248958706856,
            0.007169327232986689,
            0.02007952332496643,
            -0.05111271142959595,
            -0.015608412213623524,
            -0.0249027032405138,
            -0.04647313430905342,
            0.03543386980891228,
            0.05599234625697136,
            -0.07955338805913925,
            -0.02727590873837471,
            -0.002535776002332568,
            0.03181365877389908,
            -0.0006886508781462908,
            -0.0725943073630333,
            0.08170705288648605,
            -0.07981628179550171,
            0.009595874696969986,
            -0.0031524747610092163,
            -0.05394508317112923,
            0.061935294419527054,
            0.03782200813293457,
            -0.05142580345273018,
            -0.0412784181535244,
            -0.03642026707530022,
            0.04108618199825287,
            0.011617856100201607,
            -0.01743212528526783,
            -0.1229272112250328,
            -0.003144512651488185,
            0.03283737227320671,
            -0.04403240233659744,
            0.04970616474747658,
            -0.053408801555633545,
            -0.032391391694545746,
            0.1044546589255333,
            -0.033669717609882355,
            0.04987042769789696,
            0.05198071151971817,
            -0.007665124721825123,
            -0.04848248139023781,
            -0.00938477460294962,
            0.012922370806336403,
            -0.013854928314685822,
            0.0434979572892189,
            -0.05714141204953194,
            -0.0074853659607470036,
            0.02307848446071148,
            0.02953796461224556,
            -0.025655090808868408,
            -0.036552127450704575,
            -0.03046507015824318,
            0.011705972254276276,
            0.010949923656880856,
            0.042987823486328125,
            0.01968267373740673,
            -0.032348379492759705,
            0.011279014870524406,
            -0.10699547827243805,
            0.06692827492952347,
            0.06424156576395035,
            -0.07665418088436127,
            -0.008488157764077187,
            -0.019011298194527626,
            -0.004025376867502928,
            0.03476071357727051,
            -0.012445722706615925,
            -0.019474085420370102,
            -0.03595411032438278,
            0.007068567909300327,
            0.04186934977769852,
            -0.05014531686902046,
            0.031183987855911255,
            0.0008838414214551449,
            0.038476210087537766,
            0.07148443907499313,
            -0.03611740842461586,
            0.04788802191615105,
            -0.0010188337182626128,
            0.11565371602773666,
            -0.0041817352175712585,
            0.042475081980228424,
            -0.004113154485821724,
            0.0016482117353007197,
            -0.013396290130913258,
            -0.04403392970561981,
            -0.032894693315029144,
            -0.05999835953116417,
            -0.02637021616101265,
            -0.03783538565039635,
            -0.0022429884411394596,
            -0.002166559686884284,
            0.0642772689461708
        ]
    }
}